[{"nodeid": 0, "depth": 0, "split": "mean concave points", "split_condition": 0.0512799993, "yes": 1, "no": 2, "missing": 1, "children": [{"nodeid": 1, "depth": 1, "split": "worst radius", "split_condition": 16.8299999, "yes": 3, "no": 4, "missing": 3, "children": [{"nodeid": 3, "depth": 2, "split": "radius error", "split_condition": 0.572100043, "yes": 7, "no": 8, "missing": 7, "children": [{"nodeid": 7, "leaf": 0.00191752589}, {"nodeid": 8, "leaf": 0}]}, {"nodeid": 4, "depth": 2, "split": "mean texture", "split_condition": 18.6800003, "yes": 9, "no": 10, "missing": 10, "children": [{"nodeid": 9, "leaf": 0.00100000005}, {"nodeid": 10, "leaf": -0.00125000009}]}]}, {"nodeid": 2, "depth": 1, "split": "worst concave points", "split_condition": 0.14655, "yes": 5, "no": 6, "missing": 6, "children": [{"nodeid": 5, "depth": 2, "split": "worst perimeter", "split_condition": 115.25, "yes": 11, "no": 12, "missing": 12, "children": [{"nodeid": 11, "leaf": 0.00106666679}, {"nodeid": 12, "leaf": -0.00155555562}]}, {"nodeid": 6, "depth": 2, "split": "concavity error", "split_condition": 0.112849995, "yes": 13, "no": 14, "missing": 14, "children": [{"nodeid": 13, "leaf": -0.00192546588}, {"nodeid": 14, "leaf": 0}]}]}]}]